1.171031594276428223e-01
-4.617780819535255432e-02
-1.034052744507789612e-01
1.110955998301506042e-01
1.076862066984176636e-01
-3.892260789871215820e-02
-1.899225264787673950e-02
-1.032635793089866638e-01
2.729753553867340088e-01
-1.261225938796997070e-01
-4.062492400407791138e-02
-1.705034375190734863e-01
-1.205744519829750061e-01
9.783551096916198730e-03
1.789820194244384766e-01
2.529118061065673828e-01
-1.274900436401367188e-01
1.447530388832092285e-01
-1.674571484327316284e-01
1.045892611145973206e-01
-6.050285696983337402e-02
-5.204748362302780151e-02
-5.364210158586502075e-02
-2.595403417944908142e-02
-1.294753700494766235e-01
8.696492761373519897e-02
1.980577111244201660e-01
-1.241467669606208801e-01
-6.187698803842067719e-03
-1.573262214660644531e-01
-8.609235286712646484e-02
-2.101462185382843018e-01
-1.540020555257797241e-01
-1.651404076255857944e-03
-2.662104368209838867e-01
-1.109238490462303162e-01
-1.547163128852844238e-01
-1.513914614915847778e-01
-7.803153246641159058e-02
1.870025247335433960e-01
-9.397646784782409668e-02
3.270391747355461121e-02
-2.421971410512924194e-01
-2.026308625936508179e-01
1.526371669024229050e-02
-3.989106416702270508e-02
-1.096943765878677368e-01
-1.554853916168212891e-01
-1.101206094026565552e-01
-1.423043906688690186e-01
-1.668912917375564575e-01
5.205010622739791870e-02
-3.853284567594528198e-02
-1.023172494024038315e-02
-9.503927081823348999e-02
-5.648573860526084900e-02
-1.799730062484741211e-01
1.456988416612148285e-02
2.667337357997894287e-01
-1.255078464746475220e-01
-2.133204638957977295e-01
-1.471926718950271606e-01
-3.613296523690223694e-02
-2.701565623283386230e-02
-2.768189311027526855e-01
2.744065523147583008e-01
-1.649245321750640869e-01
-1.404972467571496964e-02
-5.582670122385025024e-02
-7.306989282369613647e-02
-6.917469203472137451e-02
-1.707681715488433838e-01
-2.541123628616333008e-01
3.228849917650222778e-02
-1.726011186838150024e-02
-1.438824683427810669e-01
1.094655394554138184e-01
-2.063828557729721069e-01
-5.469151586294174194e-02
2.803709506988525391e-01
-7.657647877931594849e-02
-5.143724754452705383e-02
-8.213562518358230591e-02
1.058673858642578125e-01
-3.219312429428100586e-01
2.565452829003334045e-02
-1.717582345008850098e-01
-2.099665850400924683e-01
-8.205386251211166382e-02
-6.335999071598052979e-02
-1.370368003845214844e-01
1.199795491993427277e-02
5.575215816497802734e-01
1.129612848162651062e-01
-2.215410321950912476e-01
-2.038925141096115112e-01
-1.422239094972610474e-01
-1.349551416933536530e-02
-1.693705469369888306e-01
-1.601971238851547241e-01
5.365015268325805664e-01
-2.079145908355712891e-01
2.034301906824111938e-01
-2.028718590736389160e-02
-1.895396225154399872e-02
-3.555007651448249817e-02
4.139949381351470947e-02
1.755579113960266113e-01
2.856685314327478409e-03
-8.094942569732666016e-02
-1.492732316255569458e-01
-3.376892581582069397e-02
-8.492484688758850098e-02
-1.128219068050384521e-01
-1.517432332038879395e-01
2.369718253612518311e-02
1.498867869377136230e-01
-1.799677759408950806e-01
-2.007483989000320435e-01
1.227890923619270325e-01
-9.338095039129257202e-02
-4.972372353076934814e-01
5.656043067574501038e-02
-1.408486068248748779e-01
2.438984513282775879e-01
3.229035437107086182e-02
2.243508584797382355e-02
-1.039659306406974792e-01
2.279019802808761597e-01
-1.972172856330871582e-01
-1.718103587627410889e-01
-2.300727963447570801e-01
3.124072030186653137e-02
-1.594163179397583008e-01
-1.392673403024673462e-01
-6.866449117660522461e-02
-3.318891525268554688e-01
-2.507395744323730469e-01
-1.415051966905593872e-01
-1.747183650732040405e-01
-2.802399992942810059e-01
-8.046643435955047607e-02
-1.541318953968584538e-03
2.037045210599899292e-01
-1.017686426639556885e-01
-2.281991094350814819e-01
-2.277970761060714722e-01
-1.383066475391387939e-01
-1.450649350881576538e-01
-1.116996482014656067e-01
-1.780824512243270874e-01
-2.492775768041610718e-01
-4.000627901405096054e-03
1.406271755695343018e-02
-6.953233480453491211e-02
-1.044941227883100510e-02
-1.378170549869537354e-01
-2.609211802482604980e-01
7.577425986528396606e-02
1.918904781341552734e-01
-1.465877294540405273e-01
9.155805408954620361e-02
-1.823383197188377380e-02
-1.067747250199317932e-01
2.224209159612655640e-01
2.086745649576187134e-01
1.688507348299026489e-01
-1.371417343616485596e-01
-3.081293702125549316e-01
7.572463899850845337e-02
-1.022457554936408997e-01
-2.622873187065124512e-01
-6.336848437786102295e-02
-8.354916423559188843e-02
1.549579016864299774e-02
-1.602484472095966339e-02
-5.898943170905113220e-02
-1.150182634592056274e-01
3.490598499774932861e-02
-1.422619521617889404e-01
-2.968462184071540833e-02
-1.530481576919555664e-01
-1.588990092277526855e-01
-3.467442467808723450e-02
9.428165853023529053e-02
-1.134402975440025330e-01
-1.300578117370605469e-01
-5.759704113006591797e-02
-2.181313484907150269e-01
1.827705465257167816e-02
8.556988090276718140e-02
6.853861361742019653e-02
-1.291592270135879517e-01
-2.549889981746673584e-01
-1.067254766821861267e-01
4.368931055068969727e-02
1.046343967318534851e-01
1.633032262325286865e-01
-7.897543907165527344e-02
-1.500176936388015747e-01
-1.029927656054496765e-01
9.000563621520996094e-02
-1.852033138275146484e-01
-2.040280848741531372e-01
-6.832228600978851318e-02
-1.879521161317825317e-01
-8.588393777608871460e-02
-2.269473224878311157e-01
5.990167334675788879e-02
-2.127320915460586548e-01
-1.861365288496017456e-01
-1.111721545457839966e-01
6.348431576043367386e-03
8.161172270774841309e-03
8.115000277757644653e-02
-1.045483723282814026e-01
-1.841851919889450073e-01
-1.494468152523040771e-01
-2.065727114677429199e-02
-1.884893178939819336e-01
-8.923573791980743408e-02
-7.214289158582687378e-02
-6.175755336880683899e-02
-3.211344406008720398e-02
-2.078033536672592163e-01
7.336982991546392441e-03
-1.528023779392242432e-01
-2.130421698093414307e-01
-1.148484461009502411e-02
7.826389372348785400e-02
-1.161936223506927490e-01
8.943203091621398926e-02
-1.250097006559371948e-01
-2.166707366704940796e-01
-4.294391348958015442e-02
-3.022637963294982910e-01
-1.795308589935302734e-01
-2.455082908272743225e-02
4.049933329224586487e-02
-1.947705447673797607e-01
-2.044453024864196777e-01
5.471977591514587402e-02
2.384269423782825470e-02
-5.172165855765342712e-02
-1.631370037794113159e-01
-1.590651124715805054e-01
-1.443274319171905518e-01
1.312980949878692627e-01
-3.027183115482330322e-01
-5.322538688778877258e-02
-8.593133836984634399e-02
-3.952497988939285278e-02
-9.691077470779418945e-02
-1.115326955914497375e-01
-1.524353772401809692e-01
-1.694585680961608887e-01
